{"weights_input_hidden": [[13.216635459752808, -3.170207439985885, -13.658440463931603, -1.5484492883400305, -0.6238680692488677, -2.120437815562144, 8.36951650956244, -12.639753285288855, 3.0613660758383814, 8.998848273453387], [-2.3362570522703074, -2.9658269513245075, -9.478599742441391, -0.9252858198860685, -4.15538270196624, 5.322267399962844, 0.7128474573566018, -4.2399520645727815, 1.5662411777201488, 4.37264519798334], [0.2911417832825572, 0.3731587682452159, 0.01456533091950134, -0.7996220889351967, 2.8877673522777214, -0.9703723938946842, -0.3935787502810007, -0.6881103877667055, 0.1741968445475555, 0.5441225208302533], [1.1129357861462403, -0.49166325677935296, -0.9334306058245804, 0.46174916262151044, 0.10556252667132954, -1.0492849797315809, 0.148473560993435, 0.14779067972787846, -0.5725021054100227, -0.1871147809528469], [0.6643238786887794, 0.477084858894681, 0.8088471767052343, -0.30160059361510727, -1.373323368628269, -0.9881081651861693, -2.2009222243699376, 0.6688784909832332, 0.583792269817607, 0.0781204286831716], [-15.145766716678123, -0.2561829975652521, 5.191827445554679, -0.9322349952343171, -2.5762029778069415, 6.569605843789239, -6.320223201332196, 7.1852829153705535, -2.5104135222766377, -6.133296560388369]], "weights_hidden_output": [[7.0873164299828995, -13.06950096664873, -1.9197427187031593], [-1.459897011663395, 0.638967194835843, 4.316936575940295], [-11.512902202967018, -6.568827563917659, 10.81325553556127], [0.42435734366306666, 1.3844749857325849, 2.2832490141698614], [-0.9650279201331625, -1.609631353163102, 4.713419978143131], [-7.625450259823162, 1.8087271145899513, -1.7539025254916973], [6.277626788001357, -5.388486287860784, -3.6750957307833443], [-3.2969183885582054, -10.790230937436327, 6.859674448536412], [0.7321036688759964, -1.5752106862584025, -4.354473504422652], [0.5870228367967004, 7.262658133750123, -7.585120292861385]], "bias_hidden": [-0.9535067461833014, 1.4700010087502062, 6.634895993322173, 1.705530338672785, 0.07846178944128787, -3.9800083647632185, -3.346878539792201, 3.27955370077513, -2.578975390614455, -3.599520458521589], "bias_output": [-2.1541788260038133, 1.1088526539846926, -0.4406379870402898], "performance_history": [0.15217637199542638, 0.022669668444915254, 0.012808140968308885, 0.009382387637124859, 0.0076401784162626225, 0.00656211365800924, 0.005864206170030647, 0.005364746041594641, 0.004982041985905629, 0.004674078924631018, 0.06930365373908672, 0.04440427191954039, 0.060391237204222604], "input_size": 6, "hidden_size": 10, "output_size": 3}